digraph Tree {
node [shape=box] ;
0 [label="('Diagnose_LB', 'literal') <= 0.5\ngini = 0.499\nsamples = 992\nvalue = [522, 470]"] ;
1 [label="('Age', 'discrete') <= 57.5\ngini = 0.491\nsamples = 919\nvalue = [522, 397]"] ;
0 -> 1 [labeldistance=2.5, labelangle=45, headlabel="True"] ;
2 [label="('Diagnose_B', 'literal') <= 0.5\ngini = 0.449\nsamples = 103\nvalue = [35, 68]"] ;
1 -> 2 ;
3 [label="gini = 0.4\nsamples = 94\nvalue = [26, 68]"] ;
2 -> 3 ;
4 [label="gini = 0.0\nsamples = 9\nvalue = [9, 0]"] ;
2 -> 4 ;
5 [label="('Leucocytes', 'continuous') <= 131.65\ngini = 0.481\nsamples = 816\nvalue = [487, 329]"] ;
1 -> 5 ;
6 [label="gini = 0.478\nsamples = 805\nvalue = [487, 318]"] ;
5 -> 6 ;
7 [label="gini = 0.0\nsamples = 11\nvalue = [0, 11]"] ;
5 -> 7 ;
8 [label="gini = 0.0\nsamples = 73\nvalue = [0, 73]"] ;
0 -> 8 [labeldistance=2.5, labelangle=-45, headlabel="False"] ;
}