digraph Tree {
node [shape=box] ;
0 [label="('Diagnose_R', 'literal') <= 0.5\ngini = 0.067\nsamples = 145\nvalue = [140, 5]"] ;
1 [label="('Diagnose_H', 'literal') <= 0.5\ngini = 0.054\nsamples = 144\nvalue = [140, 4]"] ;
0 -> 1 [labeldistance=2.5, labelangle=45, headlabel="True"] ;
2 [label="('Diagnose_KA', 'literal') <= 0.5\ngini = 0.041\nsamples = 142\nvalue = [139, 3]"] ;
1 -> 2 ;
3 [label="gini = 0.028\nsamples = 140\nvalue = [138, 2]"] ;
2 -> 3 ;
4 [label="gini = 0.5\nsamples = 2\nvalue = [1, 1]"] ;
2 -> 4 ;
5 [label="('SIRSCritTemperature', 'boolean') <= 0.5\ngini = 0.5\nsamples = 2\nvalue = [1, 1]"] ;
1 -> 5 ;
6 [label="gini = 0.0\nsamples = 1\nvalue = [0, 1]"] ;
5 -> 6 ;
7 [label="gini = 0.0\nsamples = 1\nvalue = [1, 0]"] ;
5 -> 7 ;
8 [label="gini = 0.0\nsamples = 1\nvalue = [0, 1]"] ;
0 -> 8 [labeldistance=2.5, labelangle=-45, headlabel="False"] ;
}