digraph Tree {
node [shape=box] ;
0 [label="('SIRSCritHeartRate', 'boolean') <= 0.5\ngini = 0.499\nsamples = 40\nvalue = [21, 19]"] ;
1 [label="('Age', 'discrete') <= 57.5\ngini = 0.42\nsamples = 20\nvalue = [14, 6]"] ;
0 -> 1 [labeldistance=2.5, labelangle=45, headlabel="True"] ;
2 [label="gini = 0.0\nsamples = 2\nvalue = [0, 2]"] ;
1 -> 2 ;
3 [label="('CRP', 'continuous') <= 24.5\ngini = 0.346\nsamples = 18\nvalue = [14, 4]"] ;
1 -> 3 ;
4 [label="gini = 0.5\nsamples = 6\nvalue = [3, 3]"] ;
3 -> 4 ;
5 [label="gini = 0.153\nsamples = 12\nvalue = [11, 1]"] ;
3 -> 5 ;
6 [label="('LacticAcid', 'continuous') <= 2.6\ngini = 0.455\nsamples = 20\nvalue = [7, 13]"] ;
0 -> 6 [labeldistance=2.5, labelangle=-45, headlabel="False"] ;
7 [label="('Leucocytes', 'continuous') <= 6.95\ngini = 0.401\nsamples = 18\nvalue = [5, 13]"] ;
6 -> 7 ;
8 [label="gini = 0.49\nsamples = 7\nvalue = [4, 3]"] ;
7 -> 8 ;
9 [label="gini = 0.165\nsamples = 11\nvalue = [1, 10]"] ;
7 -> 9 ;
10 [label="gini = 0.0\nsamples = 2\nvalue = [2, 0]"] ;
6 -> 10 ;
}