digraph Tree {
node [shape=box] ;
0 [label="('Leucocytes', 'continuous') <= 153.0\ngini = 0.264\nsamples = 538\nvalue = [454, 84]"] ;
1 [label="('LacticAcid', 'continuous') <= 3.25\ngini = 0.257\nsamples = 535\nvalue = [454, 81]"] ;
0 -> 1 [labeldistance=2.5, labelangle=45, headlabel="True"] ;
2 [label="('Diagnose_JA', 'literal') <= 0.5\ngini = 0.245\nsamples = 518\nvalue = [444, 74]"] ;
1 -> 2 ;
3 [label="gini = 0.243\nsamples = 517\nvalue = [444, 73]"] ;
2 -> 3 ;
4 [label="gini = 0.0\nsamples = 1\nvalue = [0, 1]"] ;
2 -> 4 ;
5 [label="('CRP', 'continuous') <= 10.5\ngini = 0.484\nsamples = 17\nvalue = [10, 7]"] ;
1 -> 5 ;
6 [label="gini = 0.0\nsamples = 6\nvalue = [6, 0]"] ;
5 -> 6 ;
7 [label="gini = 0.463\nsamples = 11\nvalue = [4, 7]"] ;
5 -> 7 ;
8 [label="gini = 0.0\nsamples = 3\nvalue = [0, 3]"] ;
0 -> 8 [labeldistance=2.5, labelangle=-45, headlabel="False"] ;
}