digraph Tree {
node [shape=box] ;
0 [label="('Leucocytes', 'continuous') <= 28.5\ngini = 0.241\nsamples = 643\nvalue = [553, 90]"] ;
1 [label="('Diagnose_LB', 'literal') <= 0.5\ngini = 0.237\nsamples = 641\nvalue = [553, 88]"] ;
0 -> 1 [labeldistance=2.5, labelangle=45, headlabel="True"] ;
2 [label="('Diagnose_JA', 'literal') <= 0.5\ngini = 0.233\nsamples = 639\nvalue = [553, 86]"] ;
1 -> 2 ;
3 [label="gini = 0.231\nsamples = 638\nvalue = [553, 85]"] ;
2 -> 3 ;
4 [label="gini = 0.0\nsamples = 1\nvalue = [0, 1]"] ;
2 -> 4 ;
5 [label="gini = 0.0\nsamples = 2\nvalue = [0, 2]"] ;
1 -> 5 ;
6 [label="gini = 0.0\nsamples = 2\nvalue = [0, 2]"] ;
0 -> 6 [labeldistance=2.5, labelangle=-45, headlabel="False"] ;
}